Language model created by QuickLM on Fri Sep 25 22:35:45 EDT 2020
Copyright (c) 1996-2010 Carnegie Mellon University and Alexander I. Rudnicky

The model is in standard ARPA format, designed by Doug Paul while he was at MITRE.

The code that was used to produce this language model is available in Open Source.
Please visit http://www.speech.cs.cmu.edu/tools/ for more information

The (fixed) discount mass is 0.5. The backoffs are computed using the ratio method.
This model based on a corpus of 22 sentences and 40 words

\data\
ngram 1=40
ngram 2=60
ngram 3=46

\1-grams:
-0.9128 </s> -0.3010
-0.9128 <s> -0.2417
-2.2553 AROUND -0.2444
-2.2553 AT -0.2986
-1.9542 AWAY -0.2444
-1.9542 BAD -0.2962
-2.2553 BE -0.2986
-2.2553 BOWL -0.2444
-2.2553 BOY -0.2444
-2.2553 COME -0.2986
-2.2553 DONE -0.2444
-1.9542 DOWN -0.2444
-2.2553 EAT -0.2444
-2.2553 FIND -0.2986
-2.2553 GIRL -0.2444
-1.9542 GO -0.2937
-2.2553 GOOD -0.2986
-2.2553 HERE -0.2444
-1.9542 I -0.2962
-2.2553 JOB -0.2444
-2.2553 LIE -0.2962
-2.2553 LIKE -0.2937
-2.2553 LOOK -0.2986
-2.2553 LOVE -0.2937
-1.9542 MARSCAT -0.2444
-2.2553 ME -0.2444
-2.2553 QUIET -0.2444
-2.2553 RELAX -0.2444
-2.2553 RUN -0.2962
-2.2553 SIT -0.2962
-2.2553 STAND -0.2986
-2.2553 STOP -0.2444
-2.2553 THANK -0.2937
-2.2553 TO -0.2986
-2.2553 UP -0.2444
-2.2553 WALK -0.2986
-2.2553 WELL -0.2986
-1.7782 YOU -0.2444
-2.2553 YOUR -0.2986
-2.2553 ﻿HI -0.2962

\2-grams:
-1.3424 <s> BAD 0.0000
-1.6435 <s> BE 0.0000
-1.6435 <s> COME 0.0000
-1.6435 <s> FIND 0.0000
-1.3424 <s> GO 0.0000
-1.6435 <s> GOOD 0.0000
-1.3424 <s> I 0.0000
-1.6435 <s> LIE 0.0000
-1.6435 <s> LOOK 0.0000
-1.6435 <s> MARSCAT 0.0000
-1.6435 <s> RELAX 0.0000
-1.6435 <s> RUN 0.0000
-1.6435 <s> SIT 0.0000
-1.6435 <s> STAND 0.0000
-1.6435 <s> STOP 0.0000
-1.6435 <s> THANK 0.0000
-1.6435 <s> WALK 0.0000
-1.6435 <s> WELL 0.0000
-1.6435 <s> ﻿HI 0.0000
-0.3010 AROUND </s> -0.3010
-0.3010 AT ME 0.0000
-0.3010 AWAY </s> -0.3010
-0.6021 BAD BOY 0.0000
-0.6021 BAD GIRL 0.0000
-0.3010 BE QUIET 0.0000
-0.3010 BOWL </s> -0.3010
-0.3010 BOY </s> -0.3010
-0.3010 COME HERE 0.0000
-0.3010 DONE </s> -0.3010
-0.3010 DOWN </s> -0.3010
-0.3010 EAT </s> -0.3010
-0.3010 FIND YOUR 0.0000
-0.3010 GIRL </s> -0.3010
-0.6021 GO AWAY 0.0000
-0.6021 GO TO 0.0000
-0.3010 GOOD JOB 0.0000
-0.3010 HERE </s> -0.3010
-0.6021 I LIKE 0.0000
-0.6021 I LOVE 0.0000
-0.3010 JOB </s> -0.3010
-0.3010 LIE DOWN 0.0000
-0.3010 LIKE YOU 0.0000
-0.3010 LOOK AT 0.0000
-0.3010 LOVE YOU 0.0000
-0.3010 MARSCAT </s> -0.3010
-0.3010 ME </s> -0.3010
-0.3010 QUIET </s> -0.3010
-0.3010 RELAX </s> -0.3010
-0.3010 RUN AWAY 0.0000
-0.3010 SIT DOWN 0.0000
-0.3010 STAND UP 0.0000
-0.3010 STOP </s> -0.3010
-0.3010 THANK YOU 0.0000
-0.3010 TO EAT 0.0000
-0.3010 UP </s> -0.3010
-0.3010 WALK AROUND 0.0000
-0.3010 WELL DONE 0.0000
-0.3010 YOU </s> -0.3010
-0.3010 YOUR BOWL 0.0000
-0.3010 ﻿HI MARSCAT 0.0000

\3-grams:
-0.6021 <s> BAD BOY
-0.6021 <s> BAD GIRL
-0.3010 <s> BE QUIET
-0.3010 <s> COME HERE
-0.3010 <s> FIND YOUR
-0.6021 <s> GO AWAY
-0.6021 <s> GO TO
-0.3010 <s> GOOD JOB
-0.6021 <s> I LIKE
-0.6021 <s> I LOVE
-0.3010 <s> LIE DOWN
-0.3010 <s> LOOK AT
-0.3010 <s> MARSCAT </s>
-0.3010 <s> RELAX </s>
-0.3010 <s> RUN AWAY
-0.3010 <s> SIT DOWN
-0.3010 <s> STAND UP
-0.3010 <s> STOP </s>
-0.3010 <s> THANK YOU
-0.3010 <s> WALK AROUND
-0.3010 <s> WELL DONE
-0.3010 <s> ﻿HI MARSCAT
-0.3010 AT ME </s>
-0.3010 BAD BOY </s>
-0.3010 BAD GIRL </s>
-0.3010 BE QUIET </s>
-0.3010 COME HERE </s>
-0.3010 FIND YOUR BOWL
-0.3010 GO AWAY </s>
-0.3010 GO TO EAT
-0.3010 GOOD JOB </s>
-0.3010 I LIKE YOU
-0.3010 I LOVE YOU
-0.3010 LIE DOWN </s>
-0.3010 LIKE YOU </s>
-0.3010 LOOK AT ME
-0.3010 LOVE YOU </s>
-0.3010 RUN AWAY </s>
-0.3010 SIT DOWN </s>
-0.3010 STAND UP </s>
-0.3010 THANK YOU </s>
-0.3010 TO EAT </s>
-0.3010 WALK AROUND </s>
-0.3010 WELL DONE </s>
-0.3010 YOUR BOWL </s>
-0.3010 ﻿HI MARSCAT </s>

\end\
