Language model created by QuickLM on Mon Aug 24 23:28:02 EDT 2020
Copyright (c) 1996-2010 Carnegie Mellon University and Alexander I. Rudnicky

The model is in standard ARPA format, designed by Doug Paul while he was at MITRE.

The code that was used to produce this language model is available in Open Source.
Please visit http://www.speech.cs.cmu.edu/tools/ for more information

The (fixed) discount mass is 0.5. The backoffs are computed using the ratio method.
This model based on a corpus of 25 sentences and 27 words

\data\
ngram 1=27
ngram 2=50
ngram 3=25

\1-grams:
-0.7782 </s> -0.3010
-0.7782 <s> -0.2218
-2.1761 别吵 -0.2218
-2.1761 不要 -0.2218
-2.1761 到这来 -0.2218
-2.1761 滚 -0.2218
-2.1761 好样的 -0.2218
-2.1761 坏家伙 -0.2218
-2.1761 看着我 -0.2218
-2.1761 猫 -0.2218
-2.1761 你的碗呢 -0.2218
-2.1761 你好 -0.2218
-2.1761 你好吗 -0.2218
-2.1761 跑起来 -0.2218
-2.1761 停下来 -0.2218
-2.1761 我爱你 -0.2218
-2.1761 我喜欢你 -0.2218
-2.1761 小猫 -0.2218
-2.1761 谢谢你 -0.2218
-2.1761 休息 -0.2218
-2.1761 站着 -0.2218
-2.1761 转弯 -0.2218
-2.1761 走开 -0.2218
-2.1761 走一下 -0.2218
-2.1761 做的好 -0.2218
-2.1761 坐下 -0.2218
-2.1761 咪咪 -0.2218

\2-grams:
-1.6990 <s> 别吵 0.0000
-1.6990 <s> 不要 0.0000
-1.6990 <s> 到这来 0.0000
-1.6990 <s> 滚 0.0000
-1.6990 <s> 好样的 0.0000
-1.6990 <s> 坏家伙 0.0000
-1.6990 <s> 看着我 0.0000
-1.6990 <s> 猫 0.0000
-1.6990 <s> 你的碗呢 0.0000
-1.6990 <s> 你好 0.0000
-1.6990 <s> 你好吗 0.0000
-1.6990 <s> 跑起来 0.0000
-1.6990 <s> 停下来 0.0000
-1.6990 <s> 我爱你 0.0000
-1.6990 <s> 我喜欢你 0.0000
-1.6990 <s> 小猫 0.0000
-1.6990 <s> 谢谢你 0.0000
-1.6990 <s> 休息 0.0000
-1.6990 <s> 站着 0.0000
-1.6990 <s> 转弯 0.0000
-1.6990 <s> 走开 0.0000
-1.6990 <s> 走一下 0.0000
-1.6990 <s> 做的好 0.0000
-1.6990 <s> 坐下 0.0000
-1.6990 <s> 咪咪 0.0000
-0.3010 别吵 </s> -0.3010
-0.3010 不要 </s> -0.3010
-0.3010 到这来 </s> -0.3010
-0.3010 滚 </s> -0.3010
-0.3010 好样的 </s> -0.3010
-0.3010 坏家伙 </s> -0.3010
-0.3010 看着我 </s> -0.3010
-0.3010 猫 </s> -0.3010
-0.3010 你的碗呢 </s> -0.3010
-0.3010 你好 </s> -0.3010
-0.3010 你好吗 </s> -0.3010
-0.3010 跑起来 </s> -0.3010
-0.3010 停下来 </s> -0.3010
-0.3010 我爱你 </s> -0.3010
-0.3010 我喜欢你 </s> -0.3010
-0.3010 小猫 </s> -0.3010
-0.3010 谢谢你 </s> -0.3010
-0.3010 休息 </s> -0.3010
-0.3010 站着 </s> -0.3010
-0.3010 转弯 </s> -0.3010
-0.3010 走开 </s> -0.3010
-0.3010 走一下 </s> -0.3010
-0.3010 做的好 </s> -0.3010
-0.3010 坐下 </s> -0.3010
-0.3010 咪咪 </s> -0.3010

\3-grams:
-0.3010 <s> 别吵 </s>
-0.3010 <s> 不要 </s>
-0.3010 <s> 到这来 </s>
-0.3010 <s> 滚 </s>
-0.3010 <s> 好样的 </s>
-0.3010 <s> 坏家伙 </s>
-0.3010 <s> 看着我 </s>
-0.3010 <s> 猫 </s>
-0.3010 <s> 你的碗呢 </s>
-0.3010 <s> 你好 </s>
-0.3010 <s> 你好吗 </s>
-0.3010 <s> 跑起来 </s>
-0.3010 <s> 停下来 </s>
-0.3010 <s> 我爱你 </s>
-0.3010 <s> 我喜欢你 </s>
-0.3010 <s> 小猫 </s>
-0.3010 <s> 谢谢你 </s>
-0.3010 <s> 休息 </s>
-0.3010 <s> 站着 </s>
-0.3010 <s> 转弯 </s>
-0.3010 <s> 走开 </s>
-0.3010 <s> 走一下 </s>
-0.3010 <s> 做的好 </s>
-0.3010 <s> 坐下 </s>
-0.3010 <s> 咪咪 </s>

\end\
