Language model created by QuickLM on Thu Nov 26 01:23:49 EST 2020
Copyright (c) 1996-2010 Carnegie Mellon University and Alexander I. Rudnicky

The model is in standard ARPA format, designed by Doug Paul while he was at MITRE.

The code that was used to produce this language model is available in Open Source.
Please visit http://www.speech.cs.cmu.edu/tools/ for more information

The (fixed) discount mass is 0.5. The backoffs are computed using the ratio method.
This model based on a corpus of 27 sentences and 45 words

\data\
ngram 1=45
ngram 2=70
ngram 3=51

\1-grams:
-0.8909 </s> -0.3010
-0.8909 <s> -0.2389
-2.3222 AROUND -0.2413
-2.3222 ASSCAT -0.2413
-2.3222 AT -0.2990
-2.0212 AWAY -0.2413
-2.0212 BAD -0.2969
-2.3222 BE -0.2990
-2.3222 BOWL -0.2413
-2.3222 BOY -0.2413
-2.3222 COME -0.2990
-2.3222 DONE -0.2413
-2.0212 DOWN -0.2413
-2.3222 EAT -0.2413
-2.3222 FIND -0.2990
-2.3222 GIRL -0.2413
-2.0212 GO -0.2948
-2.3222 GOOD -0.2990
-2.3222 HERE -0.2413
-2.3222 HI -0.2969
-2.0212 I -0.2969
-2.3222 JOB -0.2413
-2.3222 LIE -0.2969
-2.3222 LIKE -0.2948
-2.3222 LOOK -0.2990
-2.3222 LOVE -0.2948
-2.3222 MARS -0.2413
-2.0212 MARSCAT -0.2413
-2.3222 MASKCAT -0.2413
-2.3222 MASS -0.2413
-2.3222 MASSCAT -0.2413
-2.3222 ME -0.2413
-2.3222 QUIET -0.2413
-2.3222 RELAX -0.2413
-2.3222 RUN -0.2969
-2.3222 SIT -0.2969
-2.3222 STAND -0.2990
-2.3222 STOP -0.2413
-2.3222 THANK -0.2948
-2.3222 TO -0.2990
-2.3222 UP -0.2413
-2.3222 WALK -0.2990
-2.3222 WELL -0.2990
-1.8451 YOU -0.2413
-2.3222 YOUR -0.2990

\2-grams:
-1.7324 <s> ASSCAT 0.0000
-1.4314 <s> BAD 0.0000
-1.7324 <s> BE 0.0000
-1.7324 <s> COME 0.0000
-1.7324 <s> FIND 0.0000
-1.4314 <s> GO 0.0000
-1.7324 <s> GOOD 0.0000
-1.7324 <s> HI 0.0000
-1.4314 <s> I 0.0000
-1.7324 <s> LIE 0.0000
-1.7324 <s> LOOK 0.0000
-1.7324 <s> MARS 0.0000
-1.7324 <s> MARSCAT 0.0000
-1.7324 <s> MASKCAT 0.0000
-1.7324 <s> MASS 0.0000
-1.7324 <s> MASSCAT 0.0000
-1.7324 <s> RELAX 0.0000
-1.7324 <s> RUN 0.0000
-1.7324 <s> SIT 0.0000
-1.7324 <s> STAND 0.0000
-1.7324 <s> STOP 0.0000
-1.7324 <s> THANK 0.0000
-1.7324 <s> WALK 0.0000
-1.7324 <s> WELL 0.0000
-0.3010 AROUND </s> -0.3010
-0.3010 ASSCAT </s> -0.3010
-0.3010 AT ME 0.0000
-0.3010 AWAY </s> -0.3010
-0.6021 BAD BOY 0.0000
-0.6021 BAD GIRL 0.0000
-0.3010 BE QUIET 0.0000
-0.3010 BOWL </s> -0.3010
-0.3010 BOY </s> -0.3010
-0.3010 COME HERE 0.0000
-0.3010 DONE </s> -0.3010
-0.3010 DOWN </s> -0.3010
-0.3010 EAT </s> -0.3010
-0.3010 FIND YOUR 0.0000
-0.3010 GIRL </s> -0.3010
-0.6021 GO AWAY 0.0000
-0.6021 GO TO 0.0000
-0.3010 GOOD JOB 0.0000
-0.3010 HERE </s> -0.3010
-0.3010 HI MARSCAT 0.0000
-0.6021 I LIKE 0.0000
-0.6021 I LOVE 0.0000
-0.3010 JOB </s> -0.3010
-0.3010 LIE DOWN 0.0000
-0.3010 LIKE YOU 0.0000
-0.3010 LOOK AT 0.0000
-0.3010 LOVE YOU 0.0000
-0.3010 MARS </s> -0.3010
-0.3010 MARSCAT </s> -0.3010
-0.3010 MASKCAT </s> -0.3010
-0.3010 MASS </s> -0.3010
-0.3010 MASSCAT </s> -0.3010
-0.3010 ME </s> -0.3010
-0.3010 QUIET </s> -0.3010
-0.3010 RELAX </s> -0.3010
-0.3010 RUN AWAY 0.0000
-0.3010 SIT DOWN 0.0000
-0.3010 STAND UP 0.0000
-0.3010 STOP </s> -0.3010
-0.3010 THANK YOU 0.0000
-0.3010 TO EAT 0.0000
-0.3010 UP </s> -0.3010
-0.3010 WALK AROUND 0.0000
-0.3010 WELL DONE 0.0000
-0.3010 YOU </s> -0.3010
-0.3010 YOUR BOWL 0.0000

\3-grams:
-0.3010 <s> ASSCAT </s>
-0.6021 <s> BAD BOY
-0.6021 <s> BAD GIRL
-0.3010 <s> BE QUIET
-0.3010 <s> COME HERE
-0.3010 <s> FIND YOUR
-0.6021 <s> GO AWAY
-0.6021 <s> GO TO
-0.3010 <s> GOOD JOB
-0.3010 <s> HI MARSCAT
-0.6021 <s> I LIKE
-0.6021 <s> I LOVE
-0.3010 <s> LIE DOWN
-0.3010 <s> LOOK AT
-0.3010 <s> MARS </s>
-0.3010 <s> MARSCAT </s>
-0.3010 <s> MASKCAT </s>
-0.3010 <s> MASS </s>
-0.3010 <s> MASSCAT </s>
-0.3010 <s> RELAX </s>
-0.3010 <s> RUN AWAY
-0.3010 <s> SIT DOWN
-0.3010 <s> STAND UP
-0.3010 <s> STOP </s>
-0.3010 <s> THANK YOU
-0.3010 <s> WALK AROUND
-0.3010 <s> WELL DONE
-0.3010 AT ME </s>
-0.3010 BAD BOY </s>
-0.3010 BAD GIRL </s>
-0.3010 BE QUIET </s>
-0.3010 COME HERE </s>
-0.3010 FIND YOUR BOWL
-0.3010 GO AWAY </s>
-0.3010 GO TO EAT
-0.3010 GOOD JOB </s>
-0.3010 HI MARSCAT </s>
-0.3010 I LIKE YOU
-0.3010 I LOVE YOU
-0.3010 LIE DOWN </s>
-0.3010 LIKE YOU </s>
-0.3010 LOOK AT ME
-0.3010 LOVE YOU </s>
-0.3010 RUN AWAY </s>
-0.3010 SIT DOWN </s>
-0.3010 STAND UP </s>
-0.3010 THANK YOU </s>
-0.3010 TO EAT </s>
-0.3010 WALK AROUND </s>
-0.3010 WELL DONE </s>
-0.3010 YOUR BOWL </s>

\end\
