Language model created by QuickLM on Wed Sep 16 23:43:21 EDT 2020
Copyright (c) 1996-2010 Carnegie Mellon University and Alexander I. Rudnicky

The model is in standard ARPA format, designed by Doug Paul while he was at MITRE.

The code that was used to produce this language model is available in Open Source.
Please visit http://www.speech.cs.cmu.edu/tools/ for more information

The (fixed) discount mass is 0.5. The backoffs are computed using the ratio method.
This model based on a corpus of 22 sentences and 34 words

\data\
ngram 1=34
ngram 2=54
ngram 3=39

\1-grams:
-0.8777 </s> -0.3010
-0.8777 <s> -0.2393
-2.2201 AT -0.2984
-2.2201 AWAY -0.2393
-1.9191 BAD -0.2904
-2.2201 BE -0.2984
-2.2201 BOWL -0.2393
-1.9191 BOY -0.2393
-2.2201 COME -0.2984
-2.2201 DONE -0.2393
-2.2201 FIND -0.2984
-1.9191 GIRL -0.2393
-2.2201 GO -0.2984
-1.9191 GOOD -0.2904
-2.2201 HERE -0.2393
-1.9191 I -0.2958
-2.2201 LIKE -0.2931
-2.2201 LOOK -0.2984
-2.2201 LOVE -0.2931
-2.2201 MARS -0.2393
-2.2201 ME -0.2393
-2.2201 NO -0.2393
-2.2201 QUIET -0.2393
-2.2201 RELAX -0.2393
-2.2201 RUN -0.2393
-2.2201 SIT -0.2393
-2.2201 STAND -0.2393
-2.2201 STOP -0.2393
-2.2201 THANK -0.2931
-2.2201 WALK -0.2393
-2.2201 WELL -0.2984
-1.7430 YOU -0.2393
-2.2201 YOUR -0.2984
-2.2201 ﻿GO -0.2393

\2-grams:
-1.3424 <s> BAD 0.0000
-1.6435 <s> BE 0.0000
-1.6435 <s> COME 0.0000
-1.6435 <s> FIND 0.0000
-1.6435 <s> GO 0.0000
-1.3424 <s> GOOD 0.0000
-1.3424 <s> I 0.0000
-1.6435 <s> LOOK 0.0000
-1.6435 <s> MARS 0.0000
-1.6435 <s> NO 0.0000
-1.6435 <s> RELAX 0.0000
-1.6435 <s> RUN 0.0000
-1.6435 <s> SIT 0.0000
-1.6435 <s> STAND 0.0000
-1.6435 <s> STOP 0.0000
-1.6435 <s> THANK 0.0000
-1.6435 <s> WALK 0.0000
-1.6435 <s> WELL 0.0000
-1.6435 <s> ﻿GO 0.0000
-0.3010 AT ME 0.0000
-0.3010 AWAY </s> -0.3010
-0.6021 BAD BOY 0.0000
-0.6021 BAD GIRL 0.0000
-0.3010 BE QUIET 0.0000
-0.3010 BOWL </s> -0.3010
-0.3010 BOY </s> -0.3010
-0.3010 COME HERE 0.0000
-0.3010 DONE </s> -0.3010
-0.3010 FIND YOUR 0.0000
-0.3010 GIRL </s> -0.3010
-0.3010 GO AWAY 0.0000
-0.6021 GOOD BOY 0.0000
-0.6021 GOOD GIRL 0.0000
-0.3010 HERE </s> -0.3010
-0.6021 I LIKE 0.0000
-0.6021 I LOVE 0.0000
-0.3010 LIKE YOU 0.0000
-0.3010 LOOK AT 0.0000
-0.3010 LOVE YOU 0.0000
-0.3010 MARS </s> -0.3010
-0.3010 ME </s> -0.3010
-0.3010 NO </s> -0.3010
-0.3010 QUIET </s> -0.3010
-0.3010 RELAX </s> -0.3010
-0.3010 RUN </s> -0.3010
-0.3010 SIT </s> -0.3010
-0.3010 STAND </s> -0.3010
-0.3010 STOP </s> -0.3010
-0.3010 THANK YOU 0.0000
-0.3010 WALK </s> -0.3010
-0.3010 WELL DONE 0.0000
-0.3010 YOU </s> -0.3010
-0.3010 YOUR BOWL 0.0000
-0.3010 ﻿GO </s> -0.3010

\3-grams:
-0.6021 <s> BAD BOY
-0.6021 <s> BAD GIRL
-0.3010 <s> BE QUIET
-0.3010 <s> COME HERE
-0.3010 <s> FIND YOUR
-0.3010 <s> GO AWAY
-0.6021 <s> GOOD BOY
-0.6021 <s> GOOD GIRL
-0.6021 <s> I LIKE
-0.6021 <s> I LOVE
-0.3010 <s> LOOK AT
-0.3010 <s> MARS </s>
-0.3010 <s> NO </s>
-0.3010 <s> RELAX </s>
-0.3010 <s> RUN </s>
-0.3010 <s> SIT </s>
-0.3010 <s> STAND </s>
-0.3010 <s> STOP </s>
-0.3010 <s> THANK YOU
-0.3010 <s> WALK </s>
-0.3010 <s> WELL DONE
-0.3010 <s> ﻿GO </s>
-0.3010 AT ME </s>
-0.3010 BAD BOY </s>
-0.3010 BAD GIRL </s>
-0.3010 BE QUIET </s>
-0.3010 COME HERE </s>
-0.3010 FIND YOUR BOWL
-0.3010 GO AWAY </s>
-0.3010 GOOD BOY </s>
-0.3010 GOOD GIRL </s>
-0.3010 I LIKE YOU
-0.3010 I LOVE YOU
-0.3010 LIKE YOU </s>
-0.3010 LOOK AT ME
-0.3010 LOVE YOU </s>
-0.3010 THANK YOU </s>
-0.3010 WELL DONE </s>
-0.3010 YOUR BOWL </s>

\end\
